
\data\
ngram 1=106
ngram 2=315

\1-grams:
-0.9039146	</s>
-99	<s>	-0.7272114
-2.332772	ALL	-0.2403322
-2.332772	ANN	-0.2403322
-2.242257	APPLE	-0.1724343
-1.634969	ARRIVE	-0.4874662
-2.242257	BILL	-0.198334
-2.136524	BLAME	-0.2403322
-2.332772	BLUE	-0.1420912
-1.634969	BOOK	-0.7521542
-2.332772	BORROW	-0.2403322
-2.242257	BOX	-0.4790998
-2.242257	BOY	-0.2403322
-2.332772	BREAK-DOWN	-0.354161
-2.332772	BROCCOLI	-0.2403321
-2.242257	BROTHER	-0.1420912
-2.332772	BUT	-0.2403322
-1.698948	BUY	-0.4441682
-1.979755	CAN	-0.4377521
-2.332772	CANDY	-0.2403321
-1.774009	CAR	-0.255112
-2.332772	CHICAGO	-0.2403321
-2.332772	CHICKEN	-0.2403321
-2.332772	CHINA	-0.2403322
-2.332772	CHOCOLATE	-0.2403322
-2.332772	COAT	-0.2403321
-2.242257	CORN	-0.4790998
-2.332772	DECIDE	-0.2403322
-2.242257	EAT	-0.2403322
-2.332772	FIND	-0.2403322
-2.242257	FINISH	-0.2403322
-2.332772	FISH	-0.2403322
-2.242257	FRANK	-0.1724343
-2.332772	FRED	-0.2403322
-2.332772	FRIEND	-0.2403322
-1.86481	FUTURE	-0.3208077
-2.332772	GET	-0.2403322
-2.242257	GIRL	-0.3227871
-1.634969	GIVE	-0.2528051
-1.86481	GO	-0.2849899
-2.332772	GROUP	-0.2403321
-2.136524	HAVE	-0.1724343
-2.332772	HERE	-0.354161
-2.332772	HIT	-0.2403322
-2.332772	HOMEWORK	-0.2403321
-2.242257	HOUSE	-0.6749697
-1.286115	IX	-0.4232869
-2.136524	IX-1P	-0.2403322
-2.332772	JANA	-0.1420912
-1.44522	JOHN	-0.4306096
-2.242257	KNOW	-0.1420912
-2.332772	LAST-WEEK	-0.2403322
-2.332772	LEAVE	-0.354161
-2.332772	LEG	-0.2403321
-2.136524	LIKE	-0.2249888
-2.332772	LIVE	-0.2403322
-1.979755	LOVE	-0.2886231
-2.332772	MAN	-0.2403322
-2.332772	MANY	-0.2403322
-1.44522	MARY	-0.49267
-2.136524	MOTHER	-0.1724343
-2.332772	MOVIE	-0.2403322
-2.332772	NAME	-0.2403321
-2.242257	NEW	-0.1724343
-2.332772	NEW-YORK	-0.1420912
-2.332772	NEXT-WEEK	-0.2403322
-1.979755	NOT	-0.3098942
-2.332772	OLD	-0.2403322
-2.332772	PARTY	-0.2403322
-2.332772	PAST	-0.2403322
-2.136524	PEOPLE	-0.2403322
-1.774009	POSS	-0.1840158
-2.332772	POTATO	-0.2403322
-1.979755	PREFER	-0.1724343
-2.332772	PUTASIDE	-0.2403321
-2.242257	READ	-0.1420912
-2.242257	SAY	-0.2403321
-2.332772	SAY-1P	-0.2403322
-2.332772	SEARCH-FOR	-0.2403322
-2.136524	SEE	-0.1815079
-2.332772	SELF	-0.1420912
-2.242257	SELL	-0.2403321
-2.332772	SHOOT	-0.2403322
-2.136524	SHOULD	-0.2493044
-1.86481	SOMETHING-ONE	-0.1939087
-2.332772	STOLEN	-0.1420912
-2.332772	STUDENT	-0.2403321
-2.332772	SUE	-0.1420912
-2.242257	TEACHER	-0.2403322
-2.242257	TELL	-0.4790997
-2.332772	THINK	-0.2403322
-2.332772	THROW	-0.1420912
-2.332772	TOMORROW	-0.2403321
-2.332772	TOY	-0.1420912
-2.136524	VEGETABLE	-0.2403322
-2.242257	VIDEOTAPE	-0.1420912
-1.774009	VISIT	-0.4696191
-2.332772	WANT	-0.2403322
-1.374449	WHAT	-0.4697489
-1.48546	WHO	-0.3731402
-2.332772	WILL	-0.1420913
-1.979755	WOMAN	-0.2050577
-2.242257	WONT	-0.1420912
-2.332772	WRITE	-0.2403322
-1.86481	YESTERDAY	-0.1815079
-2.483841	[UNKNOWN]

\2-grams:
-2.385602	<s> ALL
-2.385602	<s> ANN
-2.065324	<s> ARRIVE
-2.273025	<s> FRANK
-2.236367	<s> FUTURE
-1.275715	<s> IX
-2.249586	<s> IX-1P
-0.2626407	<s> JOHN
-2.385602	<s> LAST-WEEK
-2.336032	<s> LIKE
-1.650412	<s> LOVE
-2.385602	<s> MANY
-1.458931	<s> MARY
-2.385602	<s> NAME
-2.385602	<s> NEXT-WEEK
-2.336032	<s> PEOPLE
-2.193978	<s> POSS
-2.385602	<s> SHOOT
-1.514356	<s> SOMETHING-ONE
-2.28978	<s> SUE
-2.364807	<s> TEACHER
-2.273025	<s> TELL
-2.336032	<s> VEGETABLE
-1.290592	<s> WHAT
-1.305997	<s> WHO
-2.283347	<s> WOMAN
-0.3682604	ALL BOY
-0.3673413	ANN BLAME
-0.6467663	APPLE </s>
-0.681909	APPLE WHO
-0.3508565	ARRIVE </s>
-0.9172389	ARRIVE HERE
-1.471503	ARRIVE NOT
-0.8856435	ARRIVE WHO
-0.9676957	BILL MARY
-1.05244	BILL SAY
-0.9517779	BILL WHAT
-0.9198629	BILL YESTERDAY
-0.6707947	BLAME </s>
-0.8406162	BLAME FRED
-0.7896969	BLAME MARY
-0.4329824	BLUE </s>
-0.1054546	BOOK </s>
-1.50613	BOOK PUTASIDE
-1.422181	BOOK WHAT
-0.3682604	BORROW VIDEOTAPE
-0.1489984	BOX </s>
-0.6462261	BOY BOOK
-0.6462261	BOY GIVE
-0.2126998	BREAK-DOWN </s>
-0.303872	BROCCOLI </s>
-0.5290715	BROTHER ARRIVE
-0.3654982	BUT CAN
-0.7870932	BUY CAR
-0.4038738	BUY HOUSE
-1.360426	BUY IX
-1.318645	BUY WHAT
-1.423221	BUY YESTERDAY
-0.4539582	CAN </s>
-1.369407	CAN BUY
-1.4259	CAN EAT
-1.430476	CAN GET
-0.6426186	CAN GO
-0.303872	CANDY </s>
-0.966678	CAR </s>
-1.273124	CAR BLUE
-0.8106527	CAR BREAK-DOWN
-0.7968223	CAR FUTURE
-1.273124	CAR STOLEN
-0.303872	CHICAGO </s>
-0.303872	CHICKEN </s>
-0.342223	CHINA IX
-0.5463169	CHOCOLATE </s>
-0.6358203	CHOCOLATE WHO
-0.303872	COAT </s>
-0.1489984	CORN </s>
-0.3618352	DECIDE VISIT
-0.8406162	EAT BUT
-0.8406162	EAT CHICKEN
-0.7800358	EAT WHAT
-0.3636628	FIND SOMETHING-ONE
-0.8387569	FINISH READ
-0.836047	FINISH SEE
-0.820041	FINISH VISIT
-0.3682604	FISH WONT
-0.6467663	FRANK </s>
-0.7047809	FRANK POSS
-0.342223	FRED IX
-0.3618352	FRIEND POSS
-0.601169	FUTURE </s>
-1.398892	FUTURE BUY
-1.370608	FUTURE FINISH
-1.333618	FUTURE GO
-1.323346	FUTURE JOHN
-0.7079335	FUTURE NOT
-0.3654982	GET CAN
-0.9626834	GIRL BOX
-0.3673369	GIRL GIVE
-1.445018	GIVE BOY
-1.445018	GIVE GIRL
-1.252755	GIVE GIVE
-0.8024894	GIVE IX
-1.341735	GIVE JANA
-0.8276457	GIVE JOHN
-1.445018	GIVE TEACHER
-0.7069807	GO CAN
-1.426666	GO FUTURE
-1.242573	GO IX
-1.37392	GO MOVIE
-1.37392	GO NEW-YORK
-1.484545	GO PARTY
-0.9091455	GO SHOULD
-0.3582028	GROUP GIVE
-0.6954871	HAVE BOOK
-0.8370913	HAVE VIDEOTAPE
-0.2126998	HERE </s>
-0.3673413	HIT BLAME
-0.303872	HOMEWORK </s>
-0.1147607	HOUSE </s>
-1.314866	HOUSE SELL
-0.5032169	IX </s>
-1.644034	IX BOOK
-1.770216	IX CAR
-1.356763	IX GIRL
-1.712878	IX GIVE
-1.87353	IX HAVE
-1.907327	IX HIT
-0.8653655	IX IX
-1.616884	IX JOHN
-1.350922	IX LIKE
-1.907327	IX MAN
-1.893299	IX NEW
-1.87353	IX PEOPLE
-1.907327	IX SAY-1P
-1.801999	IX SOMETHING-ONE
-1.907327	IX THINK
-1.638967	IX WHO
-1.747014	IX WOMAN
-0.929037	IX-1P BUY
-0.9628829	IX-1P FIND
-0.9604208	IX-1P KNOW
-0.9568383	IX-1P SEE
-0.5491434	JANA TOY
-1.293211	JOHN </s>
-1.572185	JOHN ARRIVE
-1.692382	JOHN BOX
-2.171117	JOHN BROTHER
-1.160643	JOHN BUY
-1.26219	JOHN CAN
-2.197644	JOHN DECIDE
-2.197644	JOHN FISH
-1.110168	JOHN FUTURE
-1.572185	JOHN GIVE
-1.346923	JOHN GO
-1.154968	JOHN IX
-1.701013	JOHN LEAVE
-1.370282	JOHN LIKE
-1.26219	JOHN LOVE
-1.712737	JOHN MARY
-2.13496	JOHN MOTHER
-2.00203	JOHN NOT
-2.197644	JOHN PAST
-1.452296	JOHN POSS
-2.00203	JOHN PREFER
-2.171117	JOHN READ
-2.171117	JOHN SAY
-2.197644	JOHN SEARCH-FOR
-1.370282	JOHN SEE
-1.498109	JOHN SHOULD
-1.909777	JOHN VISIT
-2.197644	JOHN WANT
-1.739974	JOHN WHO
-2.108435	JOHN WILL
-2.197644	JOHN WRITE
-2.01392	JOHN YESTERDAY
-0.4998303	KNOW IX
-0.351028	LAST-WEEK JOHN
-0.2362204	LEAVE IX
-0.303872	LEG </s>
-0.9152784	LIKE </s>
-1.188571	LIKE CHOCOLATE
-1.184291	LIKE CORN
-0.664175	LIKE IX
-1.163729	LIKE MARY
-0.3688888	LIVE CHICAGO
-0.9701331	LOVE </s>
-1.226831	LOVE IX
-1.211926	LOVE JOHN
-0.6496527	LOVE MARY
-0.8227674	LOVE WHAT
-1.305256	LOVE WHO
-0.342223	MAN IX
-0.3673413	MANY PEOPLE
-0.238106	MARY </s>
-1.808248	MARY BILL
-1.794301	MARY BLAME
-1.794301	MARY IX-1P
-1.529585	MARY JOHN
-1.670146	MARY LOVE
-1.71002	MARY SELF
-1.691405	MARY VEGETABLE
-1.718484	MARY VISIT
-1.808248	MARY WONT
-0.6954871	MOTHER ARRIVE
-0.7533626	MOTHER IX
-0.5463169	MOVIE </s>
-0.6672135	MOVIE TOMORROW
-0.303872	NAME </s>
-0.7047809	NEW CAR
-0.8392577	NEW COAT
-0.4329824	NEW-YORK </s>
-0.351028	NEXT-WEEK JOHN
-0.9421586	NOT </s>
-0.4635813	NOT BUY
-1.107882	NOT VISIT
-1.131884	NOT WHAT
-0.3682604	OLD HOUSE
-0.3636628	PARTY FUTURE
-0.3688888	PAST LIVE
-0.8096889	PEOPLE GIVE
-0.8406162	PEOPLE GROUP
-0.8306458	PEOPLE PREFER
-1.181073	POSS BOOK
-1.372801	POSS BROTHER
-1.380085	POSS CANDY
-1.209363	POSS CAR
-1.380085	POSS FRIEND
-1.380085	POSS LEG
-1.263742	POSS NEW
-1.380085	POSS OLD
-0.3474845	POTATO WHAT
-1.131015	PREFER BROCCOLI
-1.013841	PREFER CORN
-0.9905796	PREFER GO
-1.131015	PREFER POTATO
-0.303872	PUTASIDE </s>
-0.5290715	READ BOOK
-0.6324064	SAY JOHN
-0.6324064	SAY MARY
-0.3654982	SAY-1P LOVE
-0.3528106	SEARCH-FOR WHO
-1.073998	SEE JOHN
-1.073998	SEE MARY
-1.082039	SEE THROW
-1.052987	SEE WHAT
-0.9945781	SEE WHO
-0.5427275	SELF PREFER
-0.6533045	SELL CAR
-0.6568874	SELL YESTERDAY
-0.3682604	SHOOT FRANK
-0.591539	SHOULD </s>
-1.232936	SHOULD BUY
-1.297169	SHOULD FINISH
-1.260337	SHOULD GO
-1.274714	SHOULD NOT
-1.179648	SHOULD SHOULD
-1.207247	SOMETHING-ONE ARRIVE
-1.29933	SOMETHING-ONE BORROW
-1.236655	SOMETHING-ONE CAR
-1.138009	SOMETHING-ONE POSS
-1.187196	SOMETHING-ONE STUDENT
-1.129365	SOMETHING-ONE WHAT
-1.2682	SOMETHING-ONE WOMAN
-0.4329824	STOLEN </s>
-0.6641431	STUDENT HAVE
-0.6568874	STUDENT SOMETHING-ONE
-0.5324454	SUE BUY
-0.6659654	TEACHER APPLE
-0.6462261	TEACHER GIVE
-0.1738725	TELL BILL
-0.351028	THINK MARY
-0.547951	THROW APPLE
-0.303872	TOMORROW </s>
-0.4329824	TOY </s>
-0.9628829	VEGETABLE CHINA
-0.9568383	VEGETABLE IX-1P
-0.9604208	VEGETABLE KNOW
-0.9497193	VEGETABLE PREFER
-0.4329824	VIDEOTAPE </s>
-0.2746126	VISIT MARY
-1.303654	VISIT MOTHER
-1.210829	VISIT WHAT
-1.234242	VISIT WHO
-0.3682604	WANT SELL
-0.4569149	WHAT </s>
-1.604543	WHAT ARRIVE
-1.126293	WHAT BOOK
-0.9241911	WHAT JOHN
-0.9241911	WHAT MARY
-1.664973	WHAT SOMETHING-ONE
-1.587108	WHAT WOMAN
-1.664973	WHAT YESTERDAY
-0.5236349	WHO </s>
-1.548317	WHO ARRIVE
-1.393689	WHO IX
-1.055912	WHO JOHN
-0.8814099	WHO MARY
-1.666131	WHO MOTHER
-1.591686	WHO POSS
-1.573666	WHO TELL
-1.666131	WHO VEGETABLE
-1.375239	WHO WHAT
-0.5358458	WILL VISIT
-0.9687201	WOMAN ARRIVE
-1.069118	WOMAN BOOK
-1.1227	WOMAN HAVE
-0.9867183	WOMAN IX
-1.012486	WOMAN WHAT
-0.547951	WONT EAT
-0.3688888	WRITE HOMEWORK
-0.8450936	YESTERDAY </s>
-1.11934	YESTERDAY BOOK
-1.023262	YESTERDAY IX
-0.9684834	YESTERDAY WHAT
-0.9945781	YESTERDAY WHO

\end\
